<?xml version="1.0" encoding="UTF-8"?>
<BIF VERSION="0.3"  xmlns="http://www.cs.ubc.ca/labs/lci/fopi/ve/XMLBIFv0_3"
	xmlns:xsi="http://www.w3.org/2001/XMLSchema-instance"
	xsi:schemaLocation="http://www.cs.ubc.ca/labs/lci/fopi/ve/XMLBIFv0_3 http://www.cs.ubc.ca/labs/lci/fopi/ve/XMLBIFv0_3/XMLBIFv0_3.xsd">
<NETWORK>
<NAME>Untitled</NAME>
<PROPERTY>detailed = </PROPERTY>
<PROPERTY>short = </PROPERTY>

<VARIABLE TYPE="nature">
	<NAME>Weather</NAME>
	<OUTCOME>sunny</OUTCOME>
	<OUTCOME>overcast</OUTCOME>
	<OUTCOME>raining</OUTCOME>
	<OUTCOME>snowing</OUTCOME>
	<PROPERTY>position = (7276.20263671875, 5103.599609375)</PROPERTY>
</VARIABLE>

<VARIABLE TYPE="nature">
	<NAME>Peak Time</NAME>
	<OUTCOME>True</OUTCOME>
	<OUTCOME>False</OUTCOME>
	<PROPERTY>position = (7624.3486328125, 5156.27490234375)</PROPERTY>
</VARIABLE>

<VARIABLE TYPE="nature">
	<NAME>Day</NAME>
	<OUTCOME>Holiday</OUTCOME>
	<OUTCOME>Working</OUTCOME>
	<PROPERTY>position = (7829.4619140625, 5138.5869140625)</PROPERTY>
</VARIABLE>

<VARIABLE TYPE="nature">
	<NAME>People with Car</NAME>
	<OUTCOME>T</OUTCOME>
	<OUTCOME>F</OUTCOME>
	<PROPERTY>position = (7833.4150390625, 5300.123046875)</PROPERTY>
</VARIABLE>

<VARIABLE TYPE="nature">
	<NAME>Prediction for traffic congestion</NAME>
	<OUTCOME>T</OUTCOME>
	<OUTCOME>F</OUTCOME>
	<PROPERTY>position = (7541.685546875, 5435.162109375)</PROPERTY>
</VARIABLE>

<VARIABLE TYPE="nature">
	<NAME>Camera</NAME>
	<OUTCOME>High</OUTCOME>
	<OUTCOME>Low</OUTCOME>
	<OBS>High</OBS>
	<PROPERTY>position = (7458.21044921875, 5318.2392578125)</PROPERTY>
</VARIABLE>

<VARIABLE TYPE="nature">
	<NAME>Alert Triggered</NAME>
	<OUTCOME>T</OUTCOME>
	<OUTCOME>F</OUTCOME>
	<PROPERTY>position = (7540.83447265625, 5524.107421875)</PROPERTY>
</VARIABLE>

<VARIABLE TYPE="nature">
	<NAME>Visibility Factor</NAME>
	<OUTCOME>High</OUTCOME>
	<OUTCOME>Low</OUTCOME>
	<PROPERTY>position = (7228.3974609375, 5340.6328125)</PROPERTY>
</VARIABLE>

<VARIABLE TYPE="nature">
	<NAME>Bad Fault Tolerence</NAME>
	<OUTCOME>T</OUTCOME>
	<OUTCOME>F</OUTCOME>
	<PROPERTY>position = (7457.48046875, 5166.892578125)</PROPERTY>
</VARIABLE>

<VARIABLE TYPE="nature">
	<NAME>wong Values</NAME>
	<OUTCOME>T</OUTCOME>
	<OUTCOME>F</OUTCOME>
	<PROPERTY>position = (7182.5380859375, 5126.66748046875)</PROPERTY>
</VARIABLE>

<DEFINITION>
	<FOR>Weather</FOR>
	<TABLE>0.25 0.25 0.25 0.25</TABLE>
</DEFINITION>

<DEFINITION>
	<FOR>Peak Time</FOR>
	<TABLE>0.37 0.63</TABLE>
</DEFINITION>

<DEFINITION>
	<FOR>Day</FOR>
	<TABLE>0.22 0.78</TABLE>
</DEFINITION>

<DEFINITION>
	<FOR>People with Car</FOR>
	<GIVEN>Peak Time</GIVEN>
	<GIVEN>Day</GIVEN>
	<TABLE>0.3 0.7 0.6 0.4 0.3 0.7 0.6 0.4</TABLE>
</DEFINITION>

<DEFINITION>
	<FOR>Prediction for traffic congestion</FOR>
	<GIVEN>Peak Time</GIVEN>
	<GIVEN>People with Car</GIVEN>
	<GIVEN>Camera</GIVEN>
	<GIVEN>Visibility Factor</GIVEN>
	<TABLE>1.0 0.0 0.8 0.2 1.0 0.0 0.8 0.2 0.6 0.4 0.6 0.4 0.6 0.4 0.6 0.4 0.7 0.3 0.7 0.3 0.7 0.3 0.7 0.3 0.2 0.8 0.1 0.9 0.2 0.8 0.1 0.9</TABLE>
</DEFINITION>

<DEFINITION>
	<FOR>Camera</FOR>
	<GIVEN>Visibility Factor</GIVEN>
	<GIVEN>Bad Fault Tolerence</GIVEN>
	<TABLE>0.45 0.55 0.5 0.5 0.45 0.55 0.5 0.5</TABLE>
</DEFINITION>

<DEFINITION>
	<FOR>Alert Triggered</FOR>
	<GIVEN>Prediction for traffic congestion</GIVEN>
	<TABLE>0.9 0.1 0.1 0.9</TABLE>
</DEFINITION>

<DEFINITION>
	<FOR>Visibility Factor</FOR>
	<GIVEN>Weather</GIVEN>
	<GIVEN>wong Values</GIVEN>
	<TABLE>0.95 0.05 1.0 0.0 0.55 0.45 0.6 0.4 0.25 0.75 0.3 0.7 0.1 0.9 0.15 0.85</TABLE>
</DEFINITION>

<DEFINITION>
	<FOR>Bad Fault Tolerence</FOR>
	<TABLE>0.05 0.95</TABLE>
</DEFINITION>

<DEFINITION>
	<FOR>wong Values</FOR>
	<TABLE>0.05 0.95</TABLE>
</DEFINITION>
</NETWORK>
</BIF>
