encog,BasicNetwork,java,3.4.0,1,1576874077090
[BASIC]
[BASIC:PARAMS]
[BASIC:NETWORK]
beginTraining=0
connectionLimit=0
contextTargetOffset=0,0,0
contextTargetSize=0,0,0
endTraining=2
hasContext=f
inputCount=9
layerCounts=5,10,9
layerFeedCounts=5,9,9
layerContextCount=0,0,0
layerIndex=0,5,15
output=0,0,0,0,0,0,0,0,0,0,0,0,0,0,1,0,0,0,0,0,0,0,0,0
outputCount=5
weightIndex=0,50,131
weights=0.4943140538,-3.8312634655,-5.1021051599,1.4292215472,-4.3841945256,5.03587781,-0.8179245916,-2.8858993114,-3.9763953255,-2.5778407756,3.7569326534,-3.9689457949,0.5251527646,-6.3462177554,-1.2162514357,-5.5596529901,-1.0049804911,-3.8489661749,-2.8084198391,0.3523476818,-5.0190131997,-0.6874761978,2.3252976942,1.0205878627,-2.3051994803,2.2120888217,1.078841082,-4.7090158223,3.1349900894,-0.6344864924,-5.9309476353,3.9691050119,-2.9852053295,-0.1142877701,3.6319462992,-2.1392119881,-0.3014461175,2.9467465823,-2.2819371753,-2.5499361004,0.3070498358,0.5753939517,1.4011172214,-1.1790538996,-2.2380594989,-2.4895446425,-0.8437298538,4.2406563915,0.323476596,-3.0364737051,-0.9244583946,2.7278663244,-3.3907345502,6.42124428,1.5057134661,5.4132247022,-1.6015412378,-0.029935187,0.8148435808,0.1013798796,-4.7699763137,1.8080586878,-4.9113511373,0.449543852,-0.1961607015,3.3955855098,-0.1445296768,-2.4954267751,0.9353900562,0.1082013201,-3.5891462578,-2.0651856557,-2.3840817573,0.4352985645,1.9693260065,2.7376067241,2.6994354742,-0.2295097994,1.581173901,4.9587572559,-2.3574296351,0.827608212,-3.0588305969,1.8608542149,1.0597792218,-1.5641015506,0.85297108,-4.2281112424,2.6152157675,0.3240166771,0.1950871065,-1.2497288629,0.5503108356,-4.0333825165,-2.5705935047,-2.2920561887,5.5572263642,4.0303813722,-2.5605521978,-0.6104581534,-3.9706369954,-1.5668687499,1.7404056513,-1.1581127384,-0.6417927786,-1.7535086782,-2.0818150519,-0.4161904418,-1.7906910829,-1.9438217174,-1.3965916812,-0.4856431319,0.481375671,0.7226144265,-5.4424628729,-0.3536524559,-4.1946864005,0.8105064877,2.2776666782,4.5371462852,-1.417400139,-3.6913345547,0.0998990323,-0.0729285897,-1.833593757,-4.4044357592,-3.6541984259,-1.4298599316,1.5709142947,3.3679626706,0.4413362264
biasActivation=0,1,0
[BASIC:ACTIVATION]
"org.encog.engine.network.activation.ActivationSigmoid"
"org.encog.engine.network.activation.ActivationSigmoid"
"org.encog.engine.network.activation.ActivationLinear"
