encog,BasicNetwork,java,3.4.0,1,1576612448343
[BASIC]
[BASIC:PARAMS]
[BASIC:NETWORK]
beginTraining=0
connectionLimit=0
contextTargetOffset=0,0,0
contextTargetSize=0,0,0
endTraining=2
hasContext=f
inputCount=9
layerCounts=5,10,9
layerFeedCounts=5,9,9
layerContextCount=0,0,0
layerIndex=0,5,15
output=0,0,0,0,0,0,0,0,0,0,0,0,0,0,1,0,0,0,0,0,0,0,0,0
outputCount=5
weightIndex=0,50,131
weights=-4.7079134134,-3.6807464181,-3.9553270857,1.4139006124,-3.1891398133,-5.2087694353,5.021196269,-3.3451399262,-1.7160843024,-2.0711569394,6.4687801038,-6.7092427643,-4.2691449388,1.8377963166,-1.3982896826,2.6300098977,-4.7256469187,-3.9157906593,-2.9909625298,-2.0091086867,0.6451027137,-0.9252404923,3.2110205042,-6.7117467921,5.367086046,-0.6980342773,2.4097237519,-2.9381815069,-0.750006564,-1.421453674,-3.1005404784,3.8089950527,-1.4191587669,-0.9680729023,-3.5640703227,4.1233109978,1.6239401106,1.3115975427,-3.0319322481,-4.0905159375,-2.3202795395,-0.6115955342,0.6071337201,0.4007691311,-1.8455380167,0.2543341435,-3.3491253267,-0.2174909126,1.5715079134,0.6290960253,2.8099989405,-5.5755294064,-1.9318455055,4.5523269892,-1.148826392,1.5602480983,-5.0807401367,-1.6806477077,1.6817379632,1.8931857016,-4.3019817063,1.0590600089,-5.9210793481,0.1086481025,-1.1418466921,1.5192109984,-0.8511279477,-3.135119865,0.0159475809,-0.9683857155,-1.4837528085,-3.2648374318,-1.43741565,-4.075515162,3.0617304722,1.221178463,2.4482052155,0.4297208166,-2.1221273537,-0.1372715083,4.0736098708,2.043161194,4.7475773761,0.8124455306,-2.5657113392,-1.3871141989,-1.1276760759,2.6520697073,-0.5094715186,-2.8148857587,-3.5897058526,-3.8214771643,-2.1930934288,3.1815203819,1.6498387755,2.8136680675,-6.6447815825,2.1684889286,-1.7623264365,1.0604578508,-1.7966259899,0.3736150756,-3.3116788525,-0.0266819009,-0.7467626249,1.6846013902,6.2852277443,-0.1760977589,2.78168285,-3.872561343,-2.5643464892,-0.3236970706,-2.8094021629,0.7049139672,-3.0565066939,0.4717226498,-2.9922168664,-1.3013442404,0.9931708454,1.9026308908,-0.9833735199,-3.1203844659,0.0749404321,-2.619855956,-3.1996983231,-1.1952583422,-0.1529310811,1.2128948255,0.593885877,1.6446326093,0.0058713377
biasActivation=0,1,0
[BASIC:ACTIVATION]
"org.encog.engine.network.activation.ActivationSigmoid"
"org.encog.engine.network.activation.ActivationSigmoid"
"org.encog.engine.network.activation.ActivationLinear"
